34 128
34 0.03433496 -0.007439428 0.10676156 0.005559698 -0.029156059 -0.10610645 0.09643542 0.1051749 -0.0070945546 0.1079704 0.08356332 0.0065024076 -0.09322175 -0.0020885428 0.004847797 -0.048263803 0.062762395 0.055189405 -0.11894943 -0.024125954 0.025225036 0.06640287 0.04080546 0.08152349 -0.03802422 -0.013975128 -0.04164553 0.0720962 0.05375804 -0.06632352 -0.13655348 0.038123887 -0.00041821756 -0.07704764 -0.09563631 0.037602577 0.11997377 -0.070341095 0.14072411 0.027061902 -0.07457245 0.057882115 -0.05762473 -0.10225066 0.02271275 0.009194979 -0.06359653 0.024572978 -0.004846623 0.100969516 -0.026511256 0.05576322 0.13271666 -0.03297038 0.058878694 0.06384461 0.03986851 -0.031649526 -0.0052038375 0.13103947 0.044288546 0.018426264 -0.07290158 0.14975747 0.10060273 -0.112592526 0.04235203 0.08789126 -0.070614405 -0.063206255 0.17929988 0.15752742 -0.078904994 -0.099805154 0.044220075 -0.1512262 -0.020784607 0.045876585 0.074405074 0.21756352 0.026156379 -0.20981346 0.061070826 0.22580896 -0.034895606 0.07421009 0.2559239 -0.09687423 0.19591302 0.20780213 0.016787572 -0.08335735 0.022043841 -0.009317246 0.19768155 0.010311596 -0.29415333 -0.44128978 0.079959385 -0.058286168 -0.18941273 0.09170277 -0.026391964 0.09729178 0.028657097 -0.0732982 0.05472418 -0.11840525 0.036480684 -0.027756229 0.05548915 -0.049864464 0.039015457 0.19756712 -0.08786034 -0.06077027 -0.009524784 0.24435042 0.12260994 0.11466774 -0.021425255 -0.1354704 0.03231706 0.084750734 -0.041421354 -0.071439214 -0.059817243 -0.05424735
1 0.038385425 -0.08345454 0.23511139 -0.12819536 -0.018232308 -0.20651771 -0.06779425 0.0015886996 0.021002071 0.0821857 0.33445606 0.05767221 -0.028354635 -0.14459516 0.033404075 -0.13605727 0.016600724 0.052601386 0.014222568 -0.06831444 0.05358636 0.05905453 0.07777927 0.042867165 -0.15504514 0.23715355 -0.1391399 0.0874406 0.20350681 -0.051303245 -0.2657891 0.16081744 -0.12261401 0.08561382 0.019448405 0.040175762 0.19438511 0.014175207 0.21327507 -0.027575595 0.055923775 0.10489627 -0.05224073 -0.08305635 0.09993531 -0.09097778 0.010825742 -0.2019278 -0.0156247895 -0.002960688 0.1795369 -0.14779447 0.0012333038 0.08032918 0.059108447 0.003293581 0.011302202 -0.0225173 -0.13206968 0.007814523 0.06752087 -0.09841611 0.07624747 0.06200275 0.07927632 -0.058037985 0.117116004 0.08059437 0.08986777 -0.1713129 0.047980007 -0.029689314 -0.122828394 -0.084982164 -0.03790984 -0.020884817 0.06286952 -0.0800873 0.055493608 0.10320704 -0.09991344 -0.120147444 0.037553314 0.11918053 0.016328037 0.027697226 0.10131034 -0.049388554 0.11668871 0.14333516 -0.07713439 -0.0078430865 -0.017169131 -0.0054215575 0.16315196 -0.044436894 -0.098214574 -0.19390349 0.12720051 -0.019812293 -0.08824164 0.02870999 0.053074054 -0.024335198 -0.024378022 -0.06287898 0.0013964558 -0.09963875 0.05150028 -0.014469453 0.027262876 -0.018750314 0.06595713 0.048333537 -0.06280635 0.035241302 -0.06785584 0.15154998 0.11628272 0.06564425 -0.026367852 -0.05055807 -0.018319927 0.05988942 -0.0724394 -0.13994528 -0.12708919 -0.017463228
33 0.043198317 -0.053187646 0.064513676 -0.080239944 0.025707817 -0.17560528 0.057938766 0.18711357 -0.012780405 0.27917096 0.19478507 0.004445011 -0.17580903 0.0072027 0.054017402 -0.10011906 0.16644299 0.08465415 -0.16231407 0.007385669 0.06124902 0.08274128 0.066175856 0.12571831 -0.0053303586 -0.09119934 -0.092973605 0.086056486 0.089731015 -0.09449974 -0.14786617 0.03958911 0.019277824 -0.045393087 -0.15972058 0.05013874 0.24061103 -0.16673544 0.23195842 0.07417786 -0.014559761 0.039352737 0.012181556 -0.21160035 -0.10218772 -0.021651512 -0.10454195 0.035208315 0.06305727 0.09243944 -0.02237491 0.053552046 0.18583618 -0.05786842 0.075172976 0.1338926 0.014058264 -0.008481988 0.053085905 0.20896831 0.04618343 0.03578253 -0.109848246 0.17568897 0.15020005 -0.06466946 0.09359761 0.054305963 -0.14304519 -0.041715357 0.15518081 0.15187085 -0.04485673 -0.09555971 0.04714485 -0.3231776 -0.08708246 0.003802457 0.06161161 0.27818653 0.0572539 -0.26244313 -0.10011059 0.21109907 0.008030693 0.11142612 0.27345258 -0.0115494495 0.17484342 0.22247787 0.06685692 -0.12941845 0.04756592 -0.038586862 0.1399892 -0.0047970256 -0.22199441 -0.3632942 -0.046415966 0.03541804 -0.078384824 0.12976252 -0.039037447 0.083805315 0.051327933 -0.05535013 0.04303264 -0.066362746 0.036004514 -0.013415703 0.000107589265 -0.023736062 0.015311883 0.12661888 -0.07390818 -0.05840181 -0.022022517 0.22661357 0.089161925 0.013476845 -0.116487816 -0.14598928 -0.00555976 0.0761124 -0.0054762345 0.045044105 0.02584357 -0.021440048
2 -0.0516528 -0.07479578 0.19307235 -0.06935774 -0.025336636 -0.14940543 -0.058461275 -0.06253899 0.008552696 0.04654454 0.26887372 0.008085244 0.0054581985 -0.07809739 -0.052677885 -0.1357313 -0.0011485738 0.09923428 -0.06478227 -0.1088298 0.039164413 0.08372488 0.063854486 0.096227765 -0.17115413 0.2576713 -0.15091291 0.0641387 0.11322814 -0.08927311 -0.32217753 0.124418944 -0.12652814 0.062304582 0.04374813 0.050614256 0.12301165 0.0024907 0.19749829 -0.0059207496 -0.013752166 0.13938795 -0.08012675 -0.088499986 0.03092052 -0.031670354 0.0015985483 -0.14094631 -0.0055009546 0.012248555 0.2274318 -0.1052036 0.090201326 0.090886034 0.08015073 0.017113922 0.035630193 -0.10596421 -0.15098491 0.10271043 0.18910253 -0.12047184 0.044622034 0.12889011 0.081762806 -0.077563666 0.050437298 0.102467395 0.092182465 -0.12943836 0.03447524 -0.051708378 -0.1341953 -0.14695461 -0.01731204 -0.044044834 0.04949339 0.051590115 -0.012241092 0.15175337 -0.10080466 -0.14214906 0.15021026 0.20193204 -0.018268427 0.033236798 0.15210517 -0.11323851 0.08828684 0.17746872 -0.060693506 -0.0026784504 -0.12030645 0.01267929 0.2435351 -0.11623108 -0.15153308 -0.18873215 0.06876881 -0.064620554 -0.11698328 -0.056504723 0.029115422 0.01863531 0.007175691 -0.028907042 -0.021407733 -0.099587604 0.09181692 -0.057277992 0.06286628 -0.022194196 0.14130901 0.028668948 -0.023369765 0.024464 -0.14048898 0.094292946 0.059438407 0.025925122 -0.0005873747 0.019777244 0.008792633 0.081043735 -0.06731948 -0.115220286 -0.08238169 -0.04214401
3 -0.04865973 -0.059350666 0.10587823 -0.034947284 -0.02990263 -0.08365638 0.03244214 -0.057652973 -0.004994877 0.02582297 0.16183302 -0.00815389 -0.028018244 -0.034757867 -0.05956694 -0.078041084 -0.0028367687 0.12279288 -0.05438313 -0.07057559 0.036023125 0.086121716 0.046980936 0.10957172 -0.08876173 0.1558724 -0.07405462 0.009872827 0.072113894 -0.07468294 -0.24453862 0.050373137 -0.045428988 -0.01709874 0.0028512492 0.06394173 0.08762828 0.018292671 0.13844785 -0.046021968 -0.042448226 0.1351682 -0.11032516 -0.070339605 0.06638611 0.013028568 -0.04077443 -0.104168296 -0.008098054 0.048667565 0.12945563 -0.0008176599 0.12799677 0.036545306 0.060313445 0.029585129 0.05248138 -0.09010555 -0.071383126 0.04328595 0.16629398 -0.06842279 0.010349638 0.13157338 0.029536169 -0.09094344 0.028892709 0.096713014 0.06910094 -0.049403097 0.063667275 -0.00724576 -0.0893871 -0.07246898 -0.04129393 0.014875681 0.00334621 0.11765703 0.006537415 0.16270128 -0.048385248 -0.17604925 0.15200405 0.2545765 -0.01096345 0.0276148 0.24031705 -0.1882193 0.16692293 0.21787152 -0.05784072 -0.020727273 -0.11441238 -0.014476066 0.2750886 -0.060743075 -0.22327295 -0.2578028 0.08623531 -0.09527503 -0.13902846 0.0041482835 -0.006542274 0.02913368 0.045762166 -0.012866219 0.012474267 -0.112003736 0.055752542 -0.0759488 0.115590915 -0.029064167 0.083489664 0.10817029 -0.07362381 -0.054104894 -0.08914646 0.17767213 0.10104118 0.16588905 0.016280375 -0.028025916 -0.006498756 0.08821735 -0.072820105 -0.16837642 -0.15183008 -0.031136835
4 -0.043674156 -0.09560177 0.17665656 -0.10456437 -0.0050820904 -0.13754709 -0.08367245 -0.07336529 0.004743473 0.0637392 0.32112193 -0.0076500745 -0.023390157 -0.08782124 -0.055594474 -0.15950382 0.022970047 0.10103399 -0.07541223 -0.11882703 0.052204583 0.0858079 0.09543455 0.114198804 -0.16203898 0.26627058 -0.16095284 0.031102935 0.12715651 -0.11032013 -0.35135418 0.13614067 -0.13334832 0.06123353 0.03809916 0.056965757 0.18016434 0.010799369 0.24154381 -0.04370173 0.009488365 0.15576503 -0.120354146 -0.121402904 0.042479694 -0.054353528 -0.013003047 -0.1790675 0.003715452 0.0255961 0.25395662 -0.113405116 0.11052909 0.103453636 0.09674182 0.021380333 0.0640895 -0.091163106 -0.1605146 0.088561855 0.20323384 -0.13603587 0.07736523 0.13624728 0.0669832 -0.06633261 0.07653661 0.09924536 0.10247517 -0.11507565 0.013915694 -0.062091436 -0.09380723 -0.11380281 -0.047130976 -0.0060508125 0.039473817 0.07903698 -0.051676326 0.11994067 -0.085102685 -0.099925436 0.11148338 0.15753314 0.0020127234 0.020495752 0.112650156 -0.093681455 0.038943812 0.15916961 -0.071993314 0.0017763716 -0.13240397 -0.022093663 0.18937576 -0.11578958 -0.14150292 -0.16505882 0.045879055 -0.06008119 -0.06414757 -0.055512134 0.005218079 0.020998018 0.05579511 -0.03372054 -0.036874633 -0.0818452 0.09443668 -0.06440769 0.06283042 -0.018046634 0.11208026 0.0032309084 -0.04936165 0.0208541 -0.13665617 0.09179858 0.060881276 0.06830099 0.00225297 0.012632764 0.005148343 0.06341487 -0.04085798 -0.09835213 -0.10968433 -0.008662775
14 -0.015298145 -0.08559915 0.1210043 -0.07882751 0.018093294 -0.14113759 -0.03755073 0.00021814083 0.010841984 0.09420486 0.27068156 -0.016906843 -0.048562042 -0.06320567 -0.00340025 -0.12747116 0.06381266 0.084468804 -0.07142411 -0.065827236 0.06086764 0.07395442 0.06726904 0.10124113 -0.11439114 0.15726055 -0.117065676 0.045918163 0.10934132 -0.09108149 -0.26862815 0.08677258 -0.079867244 0.046892263 -0.024399841 0.05820966 0.18778366 -0.024746316 0.23999032 -0.02966063 -0.0064245216 0.120670795 -0.07889697 -0.12276116 0.022463355 -0.045196075 -0.018946096 -0.10978281 0.016939921 0.056578487 0.17349444 -0.0732363 0.17058098 0.07693099 0.12466374 0.057056088 0.059349697 -0.05976896 -0.111367494 0.11576935 0.16314779 -0.094344825 0.033847183 0.15098786 0.11034867 -0.06478127 0.08119973 0.08636308 0.04029117 -0.1058187 0.08106575 0.0012789051 -0.09231794 -0.10512815 -0.024272148 -0.09366456 0.00476287 0.05264359 -0.016396036 0.18888886 -0.061394937 -0.14476411 0.045442145 0.16691476 0.0069705327 0.03354644 0.14706023 -0.08055562 0.083801255 0.16814275 -0.040508993 -0.03975511 -0.09136173 -0.022631295 0.18307805 -0.07618435 -0.17459704 -0.21736416 0.02280537 -0.031222384 -0.08919624 -0.013433371 -0.008759056 0.032205563 0.042437322 -0.028704101 -0.022100624 -0.08252094 0.06959001 -0.04977469 0.03789357 -0.017490432 0.078559265 0.009271236 -0.045114223 0.018590808 -0.10184406 0.09180389 0.05258837 0.035860084 -0.031540763 -0.01536447 -0.0071940986 0.055214345 -0.03124171 -0.06770274 -0.054685 0.0066308337
7 0.118046604 -0.112332456 0.24084848 -0.17937319 -0.056730572 -0.19630173 -0.0951943 0.04496561 -0.07162262 0.03156289 0.38740012 0.10012928 -0.12289176 -0.20188875 0.19643407 -0.19489695 0.040731624 -0.046753444 0.09200129 -0.08345362 0.020974815 -0.043144282 0.04148319 0.017972898 -0.15538113 0.2202477 -0.16673459 0.113384835 0.30607766 -0.03322526 -0.25466985 0.24499895 -0.09135919 0.044349268 0.056566525 -0.0042141452 0.22593646 0.054674044 0.14202875 -0.0205439 0.14682214 0.051076185 -0.037184857 -0.0029582924 0.17854834 -0.18274708 0.033841286 -0.24117543 0.023278745 0.005899618 0.17720674 -0.25602973 -0.01935266 0.12144894 0.1149931 0.027273301 -0.027701098 0.021405637 -0.16742711 0.008094019 -0.0043016616 -0.122045025 0.11857635 0.038763624 0.039670654 -0.009614069 0.17912678 0.06550219 0.016267762 -0.27485475 0.119520865 -0.046255756 -0.12631556 -0.112639606 -0.006136287 -0.0032727649 0.06871573 -0.24199632 0.15464713 0.057379957 -0.07218524 -0.16129263 -0.04318906 0.10081696 -0.0028546988 0.05872567 0.08409963 0.04979242 0.17242132 0.08699749 -0.1176889 0.035621997 0.12755622 0.02296294 0.1505507 0.08378742 -0.06337432 -0.12899825 0.19657576 -0.0047033955 -0.09051063 0.066132344 0.15089428 -0.05161749 -0.036531758 -0.077525444 0.0904928 -0.1071003 -0.0034572415 -0.035034176 0.013820557 0.013728779 0.06040558 0.06146833 -0.047048185 0.07368569 -0.020528471 0.18828008 0.1673401 0.14000516 -0.011492823 -0.10378089 -0.027920086 0.039339155 -0.10780192 -0.1619255 -0.09587732 -0.030150583
24 0.07033077 -0.013019006 0.12699905 -0.0057064407 0.03642172 -0.12273575 0.11334841 0.10680841 0.031589694 0.10662185 0.11430512 -0.011524505 -0.085023604 -0.031753983 0.033052877 -0.028601125 0.069410324 0.051159073 -0.120797984 0.0440987 0.043903116 0.097664274 0.035441782 0.08142002 -0.058769464 -0.024826525 -0.0060537453 0.0865443 0.020258052 -0.026910024 -0.11403395 -0.02066884 -0.0033987171 -0.063257985 -0.121920325 0.03980198 0.14336042 -0.08799201 0.22128272 0.004563035 -0.11796516 0.08158512 -0.1106196 -0.11738692 0.085349806 -0.020929812 -0.03198833 -0.0060409866 -0.04696387 0.15389095 0.0025046822 0.07227358 0.20043218 -0.05105517 0.06816095 0.07596817 0.11039078 0.022622265 -0.0143113015 0.09904574 0.012298081 0.024917442 -0.042729203 0.16640304 0.107547745 -0.12939619 0.060834948 0.08113519 -0.05015377 0.0047304025 0.18285204 0.18365362 -0.07048853 -0.06522509 0.029164504 -0.16078268 -0.02541255 0.06064741 0.056498475 0.23965147 0.057115853 -0.20350645 0.038850505 0.21535602 -0.011811349 0.034916703 0.19958518 -0.09597112 0.16081288 0.16447534 0.042204954 -0.11188573 0.0064960835 -0.023568673 0.11872719 0.013307578 -0.29081088 -0.45744887 0.06788758 -0.09822796 -0.16468638 0.05941698 -0.077286005 0.10203757 0.019639906 -0.06906919 0.050195538 -0.12752561 0.019986426 -0.0067384844 0.059071977 -0.054667052 -0.012777126 0.20564991 -0.14568454 -0.099773355 0.0061100344 0.22017208 0.129349 0.14863753 -0.040646143 -0.13878907 0.05043645 0.09609196 -0.014691381 -0.08374879 -0.09555219 -0.010580964
8 -0.043973878 -0.05960597 0.11314006 -0.08585774 -0.030171221 -0.10192312 -0.06422947 -0.034903236 -0.017949644 0.07498762 0.26214346 -0.0016638652 -0.042531338 -0.04939087 -0.034188606 -0.13812816 0.029036565 0.095214345 -0.0687961 -0.11568787 0.039407153 0.052878752 0.08376724 0.11342608 -0.12828644 0.21044438 -0.15465142 0.03143012 0.1353 -0.09130148 -0.30479792 0.14309603 -0.10643295 0.032620363 0.020006344 0.032034688 0.1719089 0.009190547 0.18851925 -0.03441343 0.020964358 0.1366351 -0.07963064 -0.117584325 0.0023632292 -0.048413396 -0.04166178 -0.12975012 0.027584936 0.012225251 0.20651394 -0.11327803 0.10816478 0.08984615 0.10453882 0.045626976 0.034319688 -0.09577937 -0.12583503 0.09868843 0.16477855 -0.10860448 0.026973346 0.10937726 0.085938126 -0.050996747 0.08314525 0.085772954 0.060212567 -0.16919927 0.038938135 -0.032050367 -0.099223055 -0.12299248 -0.039385587 -0.03536192 0.040894344 0.0484552 -0.012032226 0.15147261 -0.09569816 -0.11956086 0.07201453 0.13866341 -0.010480321 0.031812835 0.1436458 -0.069289945 0.088246375 0.19073027 -0.07493857 -0.002860411 -0.09625958 -0.025598641 0.22555356 -0.10041847 -0.15688829 -0.17869255 0.0664462 -0.022719048 -0.099093385 -0.016299263 0.032795947 0.013285093 0.049298268 -0.04601104 -0.017171236 -0.09431147 0.07605783 -0.07573533 0.075633936 -0.029831516 0.12234406 0.017722942 -0.015864208 0.05096621 -0.13810863 0.13399374 0.08668933 0.0659402 -0.00390832 -0.028527899 -0.0042237635 0.059013423 -0.066813916 -0.11054077 -0.10385068 -0.040255
28 0.068157956 -0.06532864 0.15571041 0.04064785 0.052857634 -0.1142621 0.18623434 0.006503355 0.028295707 -0.040434852 0.13213356 -0.017837387 -0.03656508 -0.1028262 0.09532786 -0.004972664 0.050131343 0.06021205 -0.03274325 0.08983632 0.042017058 0.14562263 -0.04610957 0.059344254 -0.12281 0.084539905 0.008950897 0.029656436 0.024882324 -0.030617924 -0.17468023 -0.056444883 0.02361737 -0.05128056 -0.05996423 0.09568436 0.0920857 0.012977405 0.19277364 -0.07786197 -0.1290806 0.116800524 -0.15194234 0.008573047 0.24508865 0.028893542 0.014369149 -0.092256226 -0.089389116 0.14834817 0.0733167 0.06446042 0.25286293 0.008503033 0.1321718 0.022204967 0.12288823 0.041909445 -0.07469548 -0.049560342 0.06809729 -0.060828026 0.046831213 0.20689 0.024702488 -0.16176863 0.039368168 0.13073502 0.035690513 0.04396659 0.20729253 0.11404668 -0.12600361 -0.017887255 -0.007844929 0.06401968 -0.018374281 0.078604065 0.05873005 0.200753 0.061644062 -0.18232293 0.15169302 0.30055845 0.0058567515 0.00058118574 0.224272 -0.22534968 0.19548641 0.12401082 -0.038000993 -0.043029424 -0.082902074 0.002470243 0.21390674 0.072422855 -0.2878787 -0.34215453 0.16289365 -0.21479052 -0.15504733 -0.02065041 -0.027715703 0.04202021 0.00254152 0.0058270376 0.08241714 -0.109977685 0.03367798 -0.052525453 0.11795611 0.024191378 -0.035081834 0.17203163 -0.16400793 -0.15362202 0.023950335 0.15860775 0.09993131 0.27623403 0.049974766 -0.043167688 0.045833077 0.08432725 -0.037754174 -0.2037749 -0.118030325 0.047676586
9 0.05927077 -0.044746064 0.10917565 -0.059397154 0.035703246 -0.12372472 0.051451217 0.06661904 0.011839181 0.09488353 0.18019356 -0.036048245 -0.071162626 -0.048739847 0.04313553 -0.07935198 0.07727331 0.08749356 -0.08562215 0.0123268645 0.06535718 0.09155697 0.043200843 0.097775094 -0.08735148 0.0503571 -0.05737803 0.06307039 0.08304704 -0.030249178 -0.19713578 0.03778996 -0.02178746 -0.028061891 -0.09143517 0.028267108 0.15688854 -0.05174015 0.20638993 -0.0144308545 -0.053864464 0.10815239 -0.101750426 -0.10081941 0.06583273 -0.045655027 -0.034607697 -0.08340812 -0.017416151 0.109326564 0.09442514 -0.0034541313 0.19176391 0.0063388925 0.09444447 0.071564734 0.09486779 0.0023158416 -0.06531625 0.065958224 0.084112234 -0.034038346 0.008692589 0.13232152 0.0945843 -0.124742016 0.06295962 0.06095845 0.004824793 -0.029704088 0.12302779 0.09149422 -0.093350545 -0.05956798 -0.0133896135 -0.120225966 -0.016974933 0.051053308 0.0091598965 0.2203011 0.011293931 -0.15525652 0.020327331 0.15534776 0.032221004 0.026900202 0.14959161 -0.08015248 0.11596855 0.14893761 -0.021359097 -0.060423534 -0.046546943 -0.011378522 0.100342624 -0.0003383776 -0.22959453 -0.34219027 0.047534153 -0.07745374 -0.11361186 0.017602222 -0.029329052 0.037889957 0.026282877 -0.052679136 0.018416476 -0.123084135 0.026631974 -0.024148013 0.07128981 -0.033330437 0.026146812 0.14600462 -0.13863109 -0.05384179 -0.03926772 0.19212922 0.1273944 0.1610448 -0.04565144 -0.108211 0.011215473 0.09357721 -0.024508046 -0.11812342 -0.12185832 0.017282516
16 0.08524309 0.0040442026 0.07454191 -0.040847894 0.013375068 -0.11256974 0.06386181 0.15841837 0.0018331691 0.16430444 0.09393741 -0.015007144 -0.118360266 -0.017520819 0.048527144 -0.056212828 0.10485493 0.051262137 -0.112605035 0.022501035 0.04063257 0.0500789 0.058432646 0.09178072 -0.029320959 -0.07136714 -0.03711978 0.09871434 0.0768003 -0.023294587 -0.0903324 0.04123313 -0.010325768 -0.06702454 -0.1468315 0.0012378806 0.17444432 -0.11069322 0.19158009 0.043246865 -0.049171396 0.0479559 -0.05322058 -0.13829757 0.0040643844 -0.053002164 -0.058428235 0.0041641644 -0.009751647 0.112078056 -0.030194124 0.019726012 0.16009277 -0.04149348 0.05866498 0.100388125 0.049800444 0.018414361 0.002087194 0.13283452 -0.005215402 0.051963054 -0.06365767 0.12526587 0.14193979 -0.11902693 0.07467301 0.040964723 -0.087578095 -0.07078981 0.17371692 0.18280257 -0.07497446 -0.08164423 0.027688378 -0.24961455 -0.038131945 0.0016613104 0.06966583 0.2624737 0.035959855 -0.19871205 -0.048269443 0.1359099 0.009169706 0.07125061 0.18041268 -0.0094063105 0.16638368 0.17961241 0.036536254 -0.114762336 0.06286337 -0.016962778 0.084439814 0.019650795 -0.26847464 -0.46254057 0.04864144 -0.018792605 -0.15444402 0.10418417 -0.050624657 0.08444595 0.017265568 -0.10281743 0.039827038 -0.13033693 0.009730708 -0.0021918078 0.033034727 -0.076951474 0.021650486 0.21469015 -0.12775455 -0.05158297 0.0032311797 0.26186714 0.15830344 0.11330708 -0.084791 -0.19947383 0.01386541 0.09987008 -0.02631673 -0.06366744 -0.07506067 -0.036576036
5 0.08697175 -0.12990601 0.23710948 -0.1445978 -0.020712847 -0.17554887 -0.0521146 -0.00050279754 -0.04554339 0.01975137 0.37179258 0.07245095 -0.07461307 -0.20912255 0.16288455 -0.19159213 0.020830976 -0.021186134 0.09716215 -0.09363345 0.013646382 -0.013858269 0.0041133417 0.016766964 -0.15446351 0.21458235 -0.10785385 0.0987463 0.2568484 -0.025748968 -0.22454572 0.19565551 -0.10915384 0.07471341 0.031197693 0.021330874 0.21508437 0.062798694 0.18773559 -0.063915536 0.13699752 0.09112721 -0.07023224 -0.007792186 0.18288131 -0.17499821 0.05309816 -0.2575505 0.0081086755 0.015773116 0.26099566 -0.2842374 0.010813766 0.1128681 0.1435373 -0.0034254736 0.005140774 -0.021154542 -0.20459874 0.00011085883 0.06328089 -0.14333858 0.12276405 0.06627435 0.027972411 -0.040584054 0.13140917 0.08655706 0.072852425 -0.2466007 0.12223901 -0.02748892 -0.12830916 -0.07294408 -0.023704465 0.039725266 0.09454304 -0.1902361 0.14302234 0.07662083 -0.09875168 -0.13396809 -0.018523589 0.08030961 0.0019968478 0.032948077 0.08959578 -0.016603481 0.16370517 0.08712879 -0.099538796 0.05726626 0.069284186 0.009359103 0.16301928 0.044916287 -0.054360654 -0.12038203 0.17427559 -0.009079446 -0.056319695 0.036441356 0.120546445 -0.089815244 -0.043800637 -0.052710142 0.031230276 -0.08426955 0.039663024 0.0065330793 0.03585751 0.0097532105 0.061969347 0.051209606 -0.06065599 0.06359335 -0.03713068 0.16922194 0.13154896 0.12706143 0.0067614177 -0.050192744 -0.026702521 0.039891247 -0.09501547 -0.14519118 -0.1034115 -0.00011099804
32 0.07203984 -0.076663084 0.19303815 0.03520502 0.058474034 -0.16741535 0.14759602 0.030508075 0.059110686 0.013581436 0.17388596 -0.010329503 -0.041590817 -0.096427955 0.051785942 -0.01569923 0.042869195 0.04606314 -0.09865836 0.053480875 0.057315946 0.16122985 0.009369583 0.06471197 -0.08832231 0.05803407 0.02667557 0.0668017 -0.0018120513 -0.054593414 -0.16189331 -0.073138975 0.010856453 -0.036203507 -0.10310057 0.10314652 0.15395756 -0.046868816 0.28278467 -0.050657243 -0.14334594 0.12248841 -0.15607959 -0.081793904 0.18328422 0.010474225 0.012088013 -0.07989295 -0.07781775 0.17094295 0.10123674 0.07055212 0.24231966 -0.0038586222 0.10780246 0.029379565 0.15713875 0.0062976955 -0.08982398 0.02797696 0.080622315 -0.046439916 0.030487668 0.22242738 0.041408356 -0.138746 0.053215817 0.12876025 0.01964141 0.079734445 0.19507214 0.14745085 -0.09302877 -0.028735813 0.01633841 -0.019812321 -0.02871156 0.098074235 0.034082785 0.1851041 0.06525343 -0.1810038 0.12854789 0.2662706 -0.0061035864 0.016491322 0.1813053 -0.18433581 0.13046762 0.13348486 0.010641346 -0.06406282 -0.05218451 -0.014138251 0.15275726 0.024034763 -0.26000088 -0.3743296 0.09871191 -0.16859113 -0.11810282 0.007694755 -0.06545337 0.07425661 0.016717797 -0.024708014 0.057316512 -0.0791287 0.049578566 -0.01146327 0.0740005 0.00356885 -0.04544697 0.1642122 -0.1425656 -0.1415293 0.008667267 0.14821616 0.080852285 0.18537119 0.018182332 -0.044 0.060612693 0.07318757 0.010721139 -0.123217314 -0.09653828 0.041471917
31 -0.015887465 0.017258596 0.03942674 -0.0992342 -0.03307088 -0.09645535 -0.0617294 0.08620765 -0.0050406153 0.21044149 0.16660243 -0.020879675 -0.09865918 0.021485941 -0.059332244 -0.094183594 0.08615315 0.09189848 -0.14346752 -0.08333323 0.0448069 0.05484238 0.13372198 0.13747479 -0.052727226 0.04016991 -0.13169557 0.06114344 0.10151403 -0.07472116 -0.21274705 0.10658222 -0.092517994 -0.026735783 -0.07691557 0.009331083 0.19726296 -0.09322009 0.20035131 0.031311583 -0.0011035077 0.06765404 -0.029770063 -0.19731672 -0.105072744 -0.037279088 -0.09721422 -0.021666069 0.036095537 0.0360454 0.051209155 -0.029767321 0.10829848 -0.00054597564 0.050416663 0.095445655 0.022522984 -0.039603572 -0.018082624 0.17258045 0.06805426 0.008283609 -0.058668718 0.089245915 0.16444793 -0.06745983 0.07773398 0.02702468 -0.04816797 -0.1286686 0.06395393 0.08089191 -0.058255017 -0.11093116 -0.019273775 -0.24217573 -0.025239512 0.061473995 -0.01247649 0.2226096 -0.02838269 -0.14409925 -0.033590265 0.10976181 0.007832088 0.070661575 0.15725888 0.014790158 0.10030575 0.21879826 0.0037510234 -0.1028408 -0.013521603 -0.03946994 0.13348639 -0.09665165 -0.23945299 -0.36840856 -0.010291259 0.033800814 -0.13266261 0.08151794 -0.045652777 0.11388678 0.06955943 -0.11143993 -0.005918268 -0.12669393 0.031594794 -0.052070886 0.030088972 -0.09725924 0.084433496 0.10736597 -0.060671188 0.031634178 -0.0879966 0.21151012 0.119405836 0.01750139 -0.090014234 -0.14388615 -0.010149231 0.085927226 -0.02517496 -0.04125829 -0.07848822 -0.065005735
30 0.014906764 0.032333847 0.059452213 -0.089751214 -0.019151356 -0.08134015 -0.014316041 0.09208973 0.022307169 0.16168858 0.08285505 -0.041624185 -0.07213362 0.03864013 -0.030070713 -0.077585235 0.05429378 0.1049519 -0.12037694 -0.040818084 0.05600415 0.023546126 0.09337818 0.11443765 -0.081528276 -0.006179862 -0.0862714 0.11421315 0.07971092 -0.019077817 -0.1661388 0.078453615 -0.065401256 -0.026247598 -0.093605 -0.0042277225 0.13985084 -0.06627398 0.17783786 0.046995983 -0.047678888 0.064766206 -0.038754623 -0.14709958 -0.069057584 -0.021548843 -0.032853115 -0.007975624 0.020843415 0.079621166 0.03148113 -0.054298226 0.13235644 0.003637742 0.08357587 0.14233248 0.014263465 -0.016520275 -0.04590761 0.19690539 0.06356374 0.03098812 -0.055119306 0.124394745 0.18737814 -0.092410184 0.042860493 -0.007401913 -0.044915315 -0.13062772 0.11184242 0.09838721 -0.08965296 -0.12254423 0.0010045638 -0.27030146 0.010461811 0.033671856 0.020704532 0.27642095 0.018100336 -0.15136111 -0.0024053133 0.12405742 0.0046704444 0.06447696 0.1797451 -0.05235889 0.12345216 0.1639298 0.0072541665 -0.12231621 -0.0024816883 -0.008862641 0.13714816 -0.05573642 -0.31631956 -0.45674276 0.0022358724 -0.003475229 -0.21730785 0.07542914 -0.024678662 0.12530802 0.012283168 -0.088308774 -0.0048660995 -0.18622264 0.018495802 -0.03996634 0.008250147 -0.106203325 0.07787482 0.1634941 -0.09061976 0.00918346 -0.056985643 0.20888259 0.12694149 0.039541256 -0.09240066 -0.14529528 -0.014349425 0.12485753 -0.034722243 -0.050811205 -0.07920626 -0.06848718
21 0.026665889 0.01700435 0.052786253 -0.059638858 -0.01485636 -0.10056628 0.015103978 0.14365506 -0.018559517 0.21570794 0.11942182 -0.01229676 -0.13606372 0.03231127 -0.0054816534 -0.08277793 0.117242396 0.06935552 -0.16774987 -0.03749368 0.032549974 0.055022515 0.09513147 0.12621926 -0.02916734 -0.039709702 -0.094100036 0.08332544 0.08488422 -0.07572888 -0.14937879 0.08304763 -0.048557505 -0.06344277 -0.12846264 0.00082020357 0.2065497 -0.12489147 0.20692387 0.05452116 -0.029869815 0.05716736 -0.022331666 -0.19423133 -0.08324058 -0.03708771 -0.104814656 0.028781475 0.03339332 0.083811596 -0.0072422395 0.024330147 0.15358132 -0.04346142 0.05238869 0.11317999 0.028013457 -0.023444349 0.025912013 0.1910842 0.03679152 0.038926087 -0.103906915 0.12918517 0.17104328 -0.09280106 0.07762973 0.04729902 -0.10074043 -0.11014238 0.1360722 0.15837862 -0.057094082 -0.12079955 0.028980656 -0.2831991 -0.045691982 0.044221696 0.035556514 0.26760766 0.006634718 -0.19129658 -0.052488104 0.12420834 -0.012167195 0.07757861 0.19329423 0.02339913 0.14023937 0.22136128 0.035090562 -0.11679546 0.027798604 -0.039546564 0.10799381 -0.046304706 -0.2644777 -0.43830118 -0.00050796114 0.025829798 -0.14075162 0.11083272 -0.054822247 0.11439713 0.05770771 -0.10413257 0.024616288 -0.12178327 0.034190305 -0.022057272 0.03507487 -0.080163136 0.06820809 0.14975707 -0.07739637 -0.0057180724 -0.060478628 0.2561087 0.14160465 0.039362513 -0.08935728 -0.17652681 0.010481267 0.09258947 -0.02838145 -0.01758683 -0.046452634 -0.06770804
18 0.0010275283 -0.12059539 0.20678511 -0.11435697 -0.01080116 -0.19827795 -0.098636374 -0.009832396 -0.0015791988 0.0798282 0.35558486 0.042054765 -0.04588642 -0.12165179 0.026747966 -0.17249626 0.043262575 0.03687231 -0.029656388 -0.13311726 0.042819876 0.0513876 0.081168324 0.07447962 -0.13977958 0.22170901 -0.1373202 0.080512546 0.17120269 -0.10831706 -0.30917707 0.15684316 -0.11234375 0.094849065 0.016333086 0.061160784 0.21151583 0.0093199285 0.24123116 -0.03167754 0.047595967 0.08822234 -0.06673271 -0.09986253 0.054238506 -0.100788474 0.014436728 -0.15859313 0.0253214 0.051663946 0.20345594 -0.15518308 0.08162568 0.11759424 0.112859026 0.020295842 0.028514436 -0.07561039 -0.1722851 0.14174098 0.15219353 -0.11676944 0.07226327 0.11806151 0.09778274 -0.035977386 0.09945197 0.10714808 0.049619943 -0.17383942 0.08569637 -0.0292627 -0.08176044 -0.13233832 -0.01126755 -0.062833145 0.03376201 -0.038174395 0.018875094 0.11432359 -0.0936307 -0.14423253 0.045334455 0.16225778 -0.025750011 0.046030395 0.12712136 -0.05904528 0.07527228 0.13969794 -0.05373332 -0.0067892247 -0.02469713 -0.007225663 0.18121909 -0.05704239 -0.10639771 -0.16583838 0.055627592 -0.015005568 -0.07498062 -0.011322453 0.032329068 0.015923185 0.002732138 -0.05159776 -0.014710966 -0.040689867 0.06813061 -0.017426386 -0.012222975 -0.0053239306 0.08901985 -0.010310705 -0.02723235 0.04554675 -0.0990191 0.06382787 0.031747263 -0.0148138665 -0.02428305 8.842787e-05 -0.003637099 0.020321362 -0.02801936 -0.032832857 -0.017032327 0.00421847
29 0.0049041486 -0.038591933 0.10722242 -0.035939198 0.04624974 -0.08497449 0.055111077 -0.013134763 0.002844926 0.043661255 0.18610884 -0.05536891 -0.030614719 -0.05131064 -0.0037724832 -0.07488704 0.05154781 0.10328346 -0.08814224 -0.00047743294 0.05452311 0.11217802 0.04225959 0.118915096 -0.10028936 0.11495059 -0.049825665 0.031091409 0.036282666 -0.048443556 -0.22291614 0.019138891 -0.04543848 -0.020237412 -0.056796562 0.028352221 0.124790065 -0.00976718 0.20218144 -0.053241108 -0.07183342 0.14590721 -0.14735061 -0.09096841 0.08047104 -0.014428004 -0.02001615 -0.10114845 -0.027922368 0.10773246 0.16273741 -0.005349434 0.2236179 0.0337989 0.1076112 0.053023532 0.12369635 -0.03656147 -0.101068206 0.051488213 0.15142824 -0.07250475 0.034743406 0.14732456 0.07970655 -0.14004888 0.053845894 0.089144565 0.061807048 -0.019527746 0.10328413 0.061970524 -0.0985547 -0.066954195 -0.042626157 -0.030121772 0.0022622307 0.118631944 -0.035859644 0.20449667 -0.004214445 -0.13248798 0.081274055 0.18230747 0.020530332 0.019311724 0.15849468 -0.13997905 0.08935775 0.1643176 -0.040913444 -0.0487094 -0.11798065 -0.023216069 0.14755222 -0.05054758 -0.2574782 -0.3288628 0.06519513 -0.12429194 -0.12916501 -0.040794224 -0.046230353 0.054250907 0.052748654 -0.043642856 0.0033366503 -0.12939589 0.056834444 -0.06021148 0.112313434 -0.041559298 0.047075737 0.11022991 -0.124005206 -0.066433504 -0.07607061 0.16713987 0.102476634 0.1727439 -0.014317691 -0.05902222 0.030149674 0.085302465 -0.03398477 -0.13974254 -0.14756227 0.017279629
25 0.08879293 -0.06107848 0.19087188 0.03301418 0.086385265 -0.106868476 0.17706786 -0.0021656745 0.022259735 -0.04222247 0.111327335 -0.04687461 -0.04690441 -0.077610984 0.05080909 -0.008797955 0.01879373 0.0652073 -0.07619606 0.078844756 0.06324448 0.16243613 -0.010633137 0.09050629 -0.10971949 0.07331153 0.054028653 0.05839898 -0.02803813 -0.015147277 -0.17008646 -0.08391032 0.02713448 -0.05275847 -0.08638055 0.050712112 0.06464435 -0.0015940289 0.20341982 -0.06195613 -0.18311211 0.12766504 -0.21561706 -0.01342451 0.23181851 -0.0006741314 0.034146436 -0.07219469 -0.12182111 0.20422058 0.084245704 0.0854102 0.26971215 -0.014714928 0.09083541 0.019104745 0.19568004 0.009323441 -0.08642741 -0.017679432 0.093242995 -0.04289607 0.055863116 0.17939416 0.026871882 -0.19880371 0.025712535 0.14082146 0.042506166 0.10102532 0.20473024 0.15983304 -0.0840695 -0.017391415 -0.011797072 0.03833135 -0.033445362 0.123451315 0.016543994 0.18599325 0.068372644 -0.20321062 0.14978737 0.2862852 -0.014391922 -0.018104155 0.21660411 -0.23645152 0.16881518 0.14944881 0.0038138814 -0.06381914 -0.080773965 -0.010761939 0.14116032 0.043641042 -0.30815256 -0.4269882 0.12311353 -0.24113789 -0.15755622 -0.043231197 -0.09125386 0.05803479 -0.0034168132 -0.02291704 0.058686834 -0.11807818 0.018759536 -0.012879427 0.111425884 -0.033881668 -0.039160788 0.20550334 -0.20908923 -0.17978947 0.018864796 0.18826944 0.115380265 0.28049946 0.02700226 -0.061291676 0.06630005 0.10421454 -0.016492084 -0.18041158 -0.16572315 0.07475954
22 0.028395392 -0.11623121 0.21453993 -0.09505169 -0.0052951165 -0.19246994 -0.06470207 -0.009384183 -0.0052844775 0.05231845 0.32791474 0.037378654 -0.04889441 -0.12244775 0.0424059 -0.15329528 0.042348154 0.018105622 -0.009821232 -0.12382153 0.04708058 0.052282132 0.0694553 0.055755027 -0.13242973 0.2150116 -0.11524516 0.07128258 0.17726903 -0.09758245 -0.2937899 0.1541134 -0.101555035 0.08042282 0.0027941514 0.056963973 0.19639753 0.002391972 0.22651824 -0.042818308 0.03488873 0.09807194 -0.08619701 -0.08430897 0.085958384 -0.1086255 0.006674679 -0.16566513 0.005564005 0.067414925 0.21546873 -0.16137339 0.082362115 0.10272224 0.11195965 -0.00059523946 0.04653279 -0.064782284 -0.18846925 0.10784929 0.14362365 -0.11846231 0.08423596 0.117576376 0.078056954 -0.068814546 0.09811119 0.11780462 0.064850874 -0.15305632 0.10331552 0.007119225 -0.094157666 -0.12542027 -0.010320759 -0.039334618 0.03330734 -0.044175684 0.022130292 0.10594656 -0.08796594 -0.14107391 0.05309418 0.15125972 -0.012024964 0.026407301 0.11620889 -0.06933202 0.08561731 0.14053164 -0.05536139 -0.00467685 -0.021971837 -0.008178912 0.17339732 -0.03623464 -0.10335152 -0.19319779 0.07993885 -0.032167077 -0.057945363 -0.0041719954 0.028997304 -0.0023420379 0.0061355145 -0.06235951 -0.005611147 -0.035725623 0.07410007 -0.0020526603 0.0032915338 -0.010962373 0.075212665 0.009498736 -0.054562002 0.04035058 -0.08020464 0.095751405 0.059597433 0.02486827 -0.008523523 -0.006858816 0.00024205915 0.019747972 -0.023795653 -0.0447392 -0.049676113 0.018484144
26 0.09128667 -0.049108382 0.14958838 0.045127187 0.06195332 -0.12879834 0.1973779 0.082435496 0.024894835 0.010997318 0.102280565 -0.008343699 -0.0668866 -0.053890973 0.09135918 0.0020024914 0.07223538 0.035694063 -0.0847446 0.06996291 0.04957453 0.1285198 -0.024882438 0.06388054 -0.08353162 0.027118461 0.034194 0.04906461 0.01877232 -0.037432313 -0.14850214 -0.061653018 0.045389857 -0.05801335 -0.122046486 0.07560463 0.09442979 -0.03789233 0.20130779 -0.04765199 -0.14576583 0.096795745 -0.14555004 -0.029536193 0.17724165 0.019210361 -0.011765052 -0.017094677 -0.079891846 0.16471143 0.011578636 0.09422531 0.2639122 -0.016724259 0.11282614 0.031471927 0.13111816 0.02644815 -0.037102915 0.016549865 0.050187644 -0.013818152 -0.015698913 0.2026543 0.05716704 -0.16819339 0.031122563 0.14194302 -0.030227786 0.035393804 0.2365183 0.17919561 -0.09620127 -0.0538127 0.02032361 -0.021783069 -0.048039664 0.07110041 0.056486882 0.21473011 0.05435884 -0.226381 0.11609886 0.29185793 -0.01812563 0.010251976 0.24815372 -0.19932081 0.21923713 0.17409731 -0.011058314 -0.07397302 -0.038223226 -0.006518961 0.18233153 0.05655654 -0.2876016 -0.40231693 0.13562165 -0.18167804 -0.15626495 0.013310821 -0.05596078 0.05501852 0.0017448782 -0.03058279 0.07339274 -0.10007297 0.04569803 -0.01465666 0.08602233 0.0065775374 -0.029465647 0.18507577 -0.15559307 -0.12792192 0.012594065 0.19369511 0.1199314 0.20668313 0.011319801 -0.09522952 0.060174715 0.0865999 -0.038827147 -0.13765591 -0.07487677 0.024669437
20 0.05917364 -0.07720686 0.14776978 -0.07924511 0.007274422 -0.17748259 -0.011409526 0.076318115 -0.0019049132 0.11940071 0.26125035 0.013566187 -0.082326554 -0.08515657 0.06152456 -0.1226871 0.071933866 0.026205057 -0.047237214 -0.05119717 0.049618073 0.04856898 0.064577445 0.06659966 -0.087040275 0.08912913 -0.07574465 0.09792855 0.13300394 -0.060617365 -0.20932165 0.09195491 -0.057740297 0.02563268 -0.06689031 0.0402909 0.20425986 -0.052128237 0.23381595 -0.009666759 0.008018263 0.08963109 -0.082572244 -0.114767805 0.062836595 -0.09607905 -0.020903923 -0.099902295 0.0063816193 0.09422231 0.117889084 -0.0877412 0.11848412 0.037272327 0.093078345 0.044286408 0.054680604 -0.023557544 -0.106152475 0.12495152 0.07435162 -0.05172684 0.033879533 0.12629227 0.09966292 -0.07102823 0.091896705 0.07207637 -0.0033681635 -0.11761603 0.12062381 0.06264993 -0.07442081 -0.09937342 0.0057133264 -0.13623814 0.012698628 -0.041690957 0.039312012 0.16207659 -0.038481556 -0.15454216 -0.015352176 0.13072558 0.0014739111 0.032777667 0.13257042 -0.030077957 0.12001027 0.13900004 -0.01522772 -0.0549664 0.028828964 -0.008904979 0.107983686 -0.00077708845 -0.15116145 -0.27837658 0.060838442 -0.007930775 -0.091284215 0.039455626 0.012084231 0.022335384 0.009024893 -0.07308199 0.007831246 -0.06773908 0.039508093 0.008979778 0.0041862056 -0.02883963 0.04339655 0.088082016 -0.094918065 0.015989942 -0.032489136 0.1618712 0.106006905 0.06459601 -0.055503204 -0.09185999 -0.001683179 0.057411805 -0.02235789 -0.06475368 -0.06312511 -2.3448418e-05
17 0.16724674 -0.13952175 0.26621443 -0.22661257 -0.05718328 -0.17310508 -0.11870964 0.04631798 -0.1076628 0.041759178 0.42770767 0.12852219 -0.16507342 -0.24783315 0.2707563 -0.24462646 0.051239945 -0.10009252 0.16894078 -0.11895169 0.003276606 -0.09754173 0.024313916 0.0071184463 -0.15735991 0.21914059 -0.16657408 0.121966586 0.378566 -0.020260148 -0.19584452 0.31168988 -0.11469018 0.07922155 0.046671152 -0.048525456 0.28723127 0.073850185 0.15145211 -0.04647034 0.23984528 0.037290256 -0.03148436 0.013930199 0.20669079 -0.27808356 0.07353921 -0.2810704 0.037077665 -0.015250258 0.25332135 -0.4189023 -0.068561085 0.1414477 0.15369041 0.03134132 -0.055914648 0.03445198 -0.22075224 -0.0013106148 -0.026567223 -0.15535761 0.1464479 0.019298792 0.055308435 -0.005810942 0.21394432 0.059976455 0.028936557 -0.3929021 0.16740942 -0.022733912 -0.11589919 -0.092202485 -0.019312484 0.02870705 0.11495401 -0.35642222 0.23741329 0.03385677 -0.10531492 -0.15360561 -0.14853586 0.013053372 -0.025061747 0.071234874 0.04963458 0.10419129 0.20227359 0.082114846 -0.12756419 0.07651935 0.20875016 -0.0050630635 0.13153347 0.106433414 -0.03601356 -0.1303738 0.23349452 0.053861246 -0.06700618 0.10301507 0.18533377 -0.11029611 -0.07466076 -0.100274324 0.075326815 -0.0926701 0.007936965 0.009404637 0.0005804753 -0.01491454 0.04974431 0.043915797 -0.05788365 0.1217503 -0.008143006 0.2221412 0.18591139 0.13690032 -0.019229472 -0.1379274 -0.050579276 0.01118119 -0.14488757 -0.13433732 -0.11068579 -0.022080937
11 0.0981119 -0.13659579 0.2317386 -0.1540182 -0.033528328 -0.18759644 -0.07483861 0.020763068 -0.049274713 0.023176579 0.3846815 0.08884158 -0.11230308 -0.1911816 0.15682565 -0.1837989 0.029936612 -0.034440987 0.0775877 -0.11355328 0.022253348 -0.012633002 0.046903823 0.025854813 -0.13914403 0.22461054 -0.1342064 0.096365854 0.26757538 -0.050591566 -0.25637403 0.20456097 -0.085517794 0.056419753 0.041503023 0.012375434 0.22043851 0.04729751 0.17787889 -0.050750557 0.1331946 0.06651444 -0.067712255 -0.025252577 0.17299362 -0.17469457 0.039812073 -0.23005624 0.019112185 0.027837116 0.20830385 -0.25056615 -0.00018992818 0.118805654 0.13049467 0.0029920076 0.0042956243 -0.011893164 -0.18302895 0.021710206 0.04545906 -0.131181 0.11847173 0.06614469 0.024821002 -0.019665826 0.15595624 0.09180355 0.037199672 -0.22844486 0.117452994 -0.028986668 -0.08867478 -0.08882849 -0.019514687 0.030260183 0.06519138 -0.17934969 0.122673444 0.04109538 -0.07735098 -0.14239694 -0.02571328 0.10189623 -0.0029695 0.04557831 0.08914618 0.0018965948 0.14200763 0.10361663 -0.10388609 0.044821825 0.08138091 -0.0039070565 0.15528767 0.04916202 -0.06478632 -0.14116222 0.17141634 -0.011033095 -0.061823502 0.051799584 0.10682248 -0.052473515 -0.024710689 -0.06988208 0.053756397 -0.0669606 0.022398975 -0.019965017 0.015635777 0.013102462 0.042472403 0.051988404 -0.058260445 0.05645978 -0.037684463 0.16355795 0.132456 0.12863371 -0.004305695 -0.062216405 -0.020124028 0.02630742 -0.0776818 -0.1275889 -0.091341056 -0.0060278154
19 0.055314716 -0.0009733311 0.09674163 -0.056541137 0.0036747786 -0.1303535 0.048456233 0.14315279 -0.0035566892 0.17258833 0.119206645 -0.003858958 -0.13122404 -0.0030540938 0.022483712 -0.06351414 0.101004474 0.058306284 -0.12925135 -0.008541264 0.038371023 0.05399168 0.07153641 0.10326307 -0.04069698 -0.051682863 -0.05318982 0.102654085 0.06937971 -0.051574294 -0.12657012 0.044625387 -0.026816923 -0.05232532 -0.12628692 0.019268537 0.17204838 -0.1086535 0.19523159 0.04434839 -0.048551027 0.047767553 -0.039133012 -0.15117753 -0.027536329 -0.03896914 -0.050130937 0.010507512 0.0010171854 0.11193641 -0.0036801116 0.019596895 0.16547953 -0.04330095 0.068279535 0.09785437 0.05372134 -0.0011460378 0.004660755 0.16462113 0.02947378 0.043335862 -0.07740636 0.13270065 0.14729391 -0.101768784 0.06359183 0.054642458 -0.09564243 -0.074588045 0.16683891 0.15495165 -0.05401133 -0.09663854 0.029944457 -0.24815615 -0.044835225 0.00445512 0.054757025 0.24502045 0.03904943 -0.21654491 -0.02749648 0.16564852 -0.006725183 0.07821519 0.20845345 -0.03086258 0.16293791 0.19723237 0.038715538 -0.113202326 0.056316443 -0.019620996 0.111392975 -0.00036324587 -0.26473662 -0.44207728 0.025290187 -0.023152024 -0.15348175 0.10169659 -0.057682198 0.1031143 0.026868366 -0.09275611 0.034056377 -0.114456095 0.015505949 -0.014161845 0.0193682 -0.070615396 0.03431191 0.17738599 -0.096987076 -0.048461817 -0.013783407 0.23880614 0.13202383 0.061776426 -0.08404895 -0.1611547 0.008603765 0.086554036 -0.021934401 -0.03329965 -0.043459624 -0.040883604
6 0.15145418 -0.10746505 0.26606762 -0.22472249 -0.05914768 -0.14136247 -0.09633753 0.014038169 -0.10437631 0.019681344 0.3859063 0.11194713 -0.13095768 -0.23800193 0.269441 -0.22983469 0.026153494 -0.07100381 0.1798539 -0.0775148 -0.0110483775 -0.094862275 -0.01734796 0.017916108 -0.18445742 0.23334983 -0.16384599 0.12870196 0.3581167 0.021189412 -0.18248376 0.2959638 -0.11949107 0.068248846 0.0710794 -0.05808853 0.24053381 0.092211716 0.11811427 -0.032125138 0.195584 0.05124345 -0.043772224 0.048093226 0.23006764 -0.2505527 0.08513935 -0.29013714 0.00982152 -0.046925273 0.24094355 -0.396566 -0.07921576 0.12812904 0.1441354 0.043030236 -0.064921215 0.048113246 -0.20670038 -0.048902087 -0.050184827 -0.14515778 0.14678876 0.010288112 0.04804736 -0.0049452856 0.18738343 0.023605656 0.04923549 -0.38274914 0.14189908 -0.04148631 -0.16293432 -0.087677345 -0.017298512 0.04642953 0.13720618 -0.3368919 0.24775495 0.047687728 -0.10016968 -0.14503774 -0.1031488 0.023215344 -0.025122229 0.060921427 0.049871415 0.06946565 0.2073557 0.058944814 -0.13210635 0.07766494 0.17655136 0.017805105 0.1596314 0.109371945 -0.07212614 -0.13191259 0.2623152 0.01744382 -0.10431351 0.074759565 0.18707107 -0.11276112 -0.09581143 -0.07067899 0.0787839 -0.1539127 -0.0066010077 -0.008399434 0.040803116 -0.020963993 0.06297759 0.06633909 -0.05616503 0.10642669 -0.010274188 0.21065164 0.1868122 0.17730115 0.010798045 -0.13402334 -0.05014476 0.055025324 -0.1735762 -0.19359128 -0.15036035 -0.033642508
23 0.0562212 0.0024463611 0.07038916 -0.05092797 0.021878477 -0.10234075 0.05190809 0.14088601 0.010067284 0.17368805 0.09894723 -0.016268985 -0.109011725 0.0067547746 0.0277691 -0.064021885 0.10530963 0.07145326 -0.12917985 0.010741448 0.042462543 0.06765532 0.070914574 0.10063692 -0.029309405 -0.0552589 -0.037463997 0.0901434 0.062785625 -0.030363368 -0.10838189 0.034537602 -0.021714004 -0.04386288 -0.14152563 0.0072303344 0.17348514 -0.119676836 0.19919005 0.03961212 -0.06266883 0.060453538 -0.053067952 -0.15851627 -0.021709755 -0.04639239 -0.06605176 0.010100325 0.0054560043 0.10244003 -0.013842768 0.026967835 0.17149986 -0.03513096 0.05500006 0.10807108 0.04991251 0.016343584 0.0043837177 0.15014741 0.019732134 0.035173785 -0.06417779 0.13079055 0.15376648 -0.10432645 0.06021152 0.040960576 -0.08326059 -0.0638073 0.15459304 0.15923494 -0.06306318 -0.08303834 0.026258407 -0.25521708 -0.03842861 0.016815016 0.044720303 0.25308377 0.037349835 -0.2003245 -0.044305593 0.15596734 0.00055005646 0.059355725 0.19267581 -0.025082288 0.15047476 0.18642722 0.045261387 -0.11590584 0.04120271 -0.025809085 0.10214808 -0.0035410412 -0.2629605 -0.43774152 0.020603798 -0.02215613 -0.14520255 0.082378715 -0.056026313 0.097040586 0.020511813 -0.088364616 0.023052476 -0.1208503 0.018998792 -0.0026176262 0.035572175 -0.078567654 0.025754258 0.1851277 -0.11716951 -0.039129425 -0.014280742 0.23002782 0.13977659 0.07544594 -0.092322536 -0.1727832 0.019872224 0.09518543 -0.0260771 -0.050578807 -0.071432956 -0.0338926
13 0.021448089 -0.124299385 0.21677119 -0.089818664 -0.0047281417 -0.15803666 -0.03155017 -0.038232487 -0.024567697 0.01426402 0.33360973 0.03181622 -0.039266914 -0.13738434 0.054817166 -0.15784375 0.011629214 0.03741433 0.005341078 -0.08639933 0.040949505 0.041555975 0.026559792 0.056969177 -0.15397823 0.22389054 -0.11518089 0.057326037 0.16707389 -0.070136964 -0.27917528 0.14174588 -0.08886096 0.05126397 0.039329823 0.039976366 0.17168821 0.037980143 0.20183626 -0.06412904 0.04354534 0.12957951 -0.12055777 -0.050173648 0.14062047 -0.10063201 0.022011774 -0.20962928 0.00081985095 0.046274304 0.23815662 -0.14835678 0.08079021 0.10726754 0.10962878 -0.0044322317 0.048232764 -0.053971257 -0.18140486 0.04579183 0.13983299 -0.14372237 0.10059911 0.12248479 0.025334412 -0.057403848 0.09005249 0.12058549 0.08880195 -0.14995429 0.08066397 -0.032539416 -0.106039315 -0.09378514 -0.014228247 0.035979994 0.049695816 -0.05200682 0.049038384 0.09560189 -0.080625854 -0.14579941 0.08737586 0.16990262 -0.0018832131 0.022927225 0.12390703 -0.094462916 0.11277832 0.12968934 -0.08420318 0.029827585 -0.042511094 0.0053391946 0.19162217 -0.02330719 -0.09228963 -0.13608925 0.120327815 -0.06556126 -0.0717784 -0.01981898 0.047947187 -0.04019465 -0.003339232 -0.02017648 0.013170837 -0.0580755 0.07225457 -0.033618446 0.06171169 0.012403275 0.079604805 0.038083542 -0.056348007 0.011048805 -0.06971079 0.12630083 0.091282465 0.12112874 0.021477414 -0.0063018585 0.0124912 0.045277346 -0.06672798 -0.12425881 -0.09940433 -0.00084670907
27 0.018322423 0.039073024 0.05324416 -0.05075487 -0.0010255234 -0.082798555 0.06734422 0.08677531 0.060193475 0.16523662 0.03992177 -0.052300967 -0.060458314 0.04477937 -0.07209374 -0.011182534 0.06127738 0.13854384 -0.16863455 0.022606438 0.06753849 0.0810059 0.09700105 0.12671229 -0.06559086 -0.06386776 -0.055432353 0.107916206 0.012472104 0.0018455039 -0.13152714 0.0011048776 -0.02103215 -0.054933134 -0.14160013 0.017645182 0.1291788 -0.09620049 0.19631721 0.07132737 -0.11489659 0.04451003 -0.02095679 -0.17069033 -0.07214793 0.014464528 -0.04420098 0.02626687 -0.0031227323 0.11465998 -0.008936217 0.011784942 0.16731466 -0.032425486 0.026078919 0.1528961 0.04990664 -0.025837392 -0.009642207 0.20240383 0.057357125 0.06430185 -0.10376636 0.13238911 0.1588657 -0.13419302 0.00593833 -0.009779387 -0.08926986 -0.017834552 0.14136235 0.12145626 -0.08229209 -0.080213286 0.007142512 -0.3041797 -0.0270479 0.08123593 0.012343192 0.32198486 0.07325252 -0.17235473 0.03217625 0.1947681 -0.004352428 0.07666038 0.20847817 -0.096198685 0.15482143 0.17640339 0.036831737 -0.15547106 -0.019648477 -0.002780737 0.12550825 -0.0466862 -0.35856754 -0.50786173 -0.029801875 -0.049973954 -0.2361621 0.0782453 -0.07060053 0.15927576 0.018805306 -0.07831676 0.03416803 -0.18678309 0.0038451764 -0.047200613 0.026037974 -0.090982705 0.060830135 0.22922125 -0.103862494 -0.0913293 -0.031094031 0.23191783 0.121763244 0.05291768 -0.09727001 -0.16385707 -0.018117718 0.15891719 -0.023569914 -0.064031065 -0.10272939 -0.06489601
15 0.048028585 0.023594167 0.037618924 -0.07439157 0.013893901 -0.102159865 0.008212838 0.16887271 -0.010211889 0.22025158 0.10567566 -0.026923688 -0.12938434 0.019099008 0.014458184 -0.07513064 0.1304575 0.06947628 -0.1450097 -0.01375095 0.04198573 0.050717648 0.093170464 0.11195049 -0.02241901 -0.06592989 -0.06590494 0.09212135 0.075066626 -0.041464187 -0.12746722 0.059717335 -0.043184098 -0.051873047 -0.15363878 -0.0126028275 0.19749135 -0.14271972 0.20641199 0.041336447 -0.022608416 0.05574829 -0.046568364 -0.18294807 -0.07932711 -0.060821645 -0.08864315 0.01568983 0.013129593 0.088034496 -0.007171935 0.018907657 0.16452107 -0.042793944 0.06321005 0.105679475 0.05126129 0.007627162 0.018370638 0.18206502 0.013606473 0.051182948 -0.074862614 0.109243676 0.16818707 -0.101886585 0.07502003 0.030634698 -0.0934266 -0.087128356 0.1316601 0.16682053 -0.05323346 -0.094515175 0.010064228 -0.29585698 -0.04597186 0.013354834 0.022233013 0.25657263 0.014162988 -0.18592189 -0.08181736 0.10550774 0.014484494 0.06543858 0.17431676 0.033776198 0.1355139 0.20582367 0.035128206 -0.12928258 0.039931275 -0.036069732 0.071110524 -0.030205764 -0.25931185 -0.45810276 0.0003923417 0.022165235 -0.12894726 0.10501093 -0.057843167 0.10412206 0.05087558 -0.12264316 0.011974147 -0.13403444 0.020040177 -0.003784301 0.026357986 -0.09412146 0.03992504 0.17666903 -0.12376666 0.0051622526 -0.037919458 0.25940716 0.161401 0.06645057 -0.12039784 -0.20423722 0.014235335 0.096067674 -0.014863212 -0.042278256 -0.068953834 -0.036483232
10 -0.006857154 -0.032374036 0.08831629 -0.055953268 0.0010093774 -0.08620172 0.023869898 0.0061695655 0.012789634 0.079429835 0.17813753 -0.034071922 -0.04118888 -0.046682574 -0.009080862 -0.09268938 0.06117597 0.114773065 -0.08407915 -0.035423633 0.04547917 0.08309849 0.045012046 0.10256284 -0.10647161 0.10265026 -0.08940244 0.04580538 0.08021547 -0.053031754 -0.21950828 0.059615143 -0.06998215 -0.019967131 -0.051200792 0.041382488 0.14340506 -0.03295369 0.19840331 -0.019926935 -0.040573496 0.13742638 -0.10608405 -0.11951594 0.039880663 -0.02540707 -0.03220325 -0.108084194 -0.012111033 0.061930664 0.15314259 -0.0517031 0.16834825 0.040940966 0.11053082 0.06174743 0.0598473 -0.040519223 -0.09506937 0.07626339 0.13723269 -0.061988667 0.003316586 0.14159763 0.09503093 -0.10735117 0.048313774 0.063331895 0.030516144 -0.0834127 0.08445797 0.03542544 -0.1093264 -0.07406469 -0.019298267 -0.08068686 0.013814424 0.08223509 -0.0061563053 0.20135097 -0.015719099 -0.13028185 0.064419635 0.16019277 0.028412756 0.035613317 0.15623593 -0.109681845 0.11101696 0.16290961 -0.04693743 -0.03624414 -0.088479504 -0.0081604235 0.17813723 -0.047460757 -0.22557658 -0.30273724 0.05180805 -0.071103245 -0.12847048 -0.013681085 -0.0018849507 0.03781496 0.043667953 -0.048482638 -0.008454132 -0.1314176 0.05911857 -0.061715722 0.08998884 -0.039167963 0.081404135 0.12199284 -0.08681174 -0.016899252 -0.08247938 0.17048292 0.10577055 0.13623166 -0.016567828 -0.06469248 0.007860626 0.09608666 -0.050258845 -0.14033568 -0.115249194 -0.027842633
12 0.05686781 -0.10671112 0.21526815 -0.1663076 -0.04945959 -0.18270862 -0.10893782 0.024174213 -0.04368893 0.094740674 0.35808152 0.07152616 -0.099139616 -0.15134715 0.108237766 -0.20039131 0.04561574 -0.009504239 0.043655183 -0.13194083 0.021937808 -0.029521149 0.05713944 0.053508908 -0.13762468 0.19607116 -0.1685799 0.11341175 0.25717053 -0.053159155 -0.25114948 0.2394705 -0.110229686 0.07368527 0.035951562 0.007896076 0.23556831 0.009328451 0.18257906 0.0018187321 0.13206232 0.06342333 -0.028061809 -0.07119632 0.059295315 -0.16267203 0.013714657 -0.18466464 0.042124476 -0.0019128257 0.2079994 -0.26778147 -0.01790314 0.108648054 0.10287864 0.033715926 -0.040807977 -0.030623235 -0.17679574 0.11080593 0.058210324 -0.112801924 0.08001485 0.05886958 0.07876065 -0.013740149 0.13059345 0.051367357 0.01680213 -0.26604337 0.09188031 -0.037842017 -0.10806693 -0.13290836 -0.0048459726 -0.09029006 0.06947344 -0.18320999 0.10745649 0.087796986 -0.08886519 -0.14443299 -0.04562415 0.084677204 -0.013544478 0.06514582 0.09594557 0.032179937 0.12056836 0.11380152 -0.07208017 0.022732778 0.08455782 0.009438208 0.15595794 -0.0051095462 -0.066764735 -0.13885199 0.10356759 0.03992091 -0.07514263 0.049623165 0.10429675 -0.027278073 -0.022712382 -0.07685819 0.022211054 -0.0691104 0.040691666 -0.014639203 -0.0135519365 -0.022159062 0.088884555 0.013850616 -0.018195443 0.09101537 -0.05725097 0.1383926 0.088945 0.017895661 -0.030281413 -0.06923469 -0.032787494 0.033739552 -0.08204654 -0.056687303 -0.043065596 -0.035641454
